0.0071512755827890665 0.007364551009517067 0.0017636292310679146 -0.0021713906416676847 -0.004858898721348411 -0.007420541469344231 0.0006337375195074674 0.005799994122104028 0.007011489073181232 -0.006204209393683436 -0.004400713252586794 -0.007544031293235645 0.004428525420487414 0.002025648822629218 -0.005355501106680716 0.003969358275164422 -0.00045691976232867986 -0.005535551300984656 -0.006659987379858512 0.003054904337587673 -0.003631762325800098 0.0069831200491223535 0.005824590661776996 0.0014820221221286945 0.007399725606321462 -0.005776940126621451 -0.005422533858802012 -0.00620908650819847 -0.007558004388999172 -0.0011061524103354895 0.00563556785871325 -0.006904922538321097 -0.006176291701626914 -0.002517645228672766 -0.003975805388135523 0.007594727574058196 0.006213298807708781 0.0015325508925134587 0.007295530064567652 -0.005398419749266684 -0.0036446826381326116 0.0008152403785391482 -0.006204490314698573 0.004504771296942812 -0.006823757864210739 4.825259877448045e-05 0.006815089003447991 0.005694414096140029 0.0018282186796900503 -0.0072754643670238876 -0.005407000330175319 -0.003141575907747555 0.0015614589658864808 -0.0002424628782191691 -0.0027243688531899323 0.005410137940607542 0.006788925894935194 -0.000778798608238779 0.0011384036457875138 -0.00567875507821411 0.0058102633115250995 0.0014239224748410018 0.001563761622784889 -0.004025935175792168 -0.0015738330882995794 -0.0009311643740839629 0.006544950356816084 0.0064869324360125056 -0.005457552934708243 0.0052828508682134295 0.0012578461221927882 -0.003905798290352256 -0.003407852718932962 -0.004287184798868023 -0.006471654182702337 -0.0016204296333279678 -0.0030780663649097994 0.0025698868339735777 -0.00599947017088509 0.007309458984017627 -0.007107067692945175 0.0009178616357038942 -0.006526362297264352 0.007273682733858902 0.004686573588944199 0.006707125451269038 -0.0029749929034006764 0.006946317978891733 0.006698503926220429 0.0029975224282630447 -0.004983533451608683 -0.0031753643120538467 -0.005069017302037453 -0.00470462986872351 0.007446205839744478 0.0036074120959043443 0.0011554074614338256 -0.005774591310032201 -0.004891810154258391 -0.00462644080067337 0.004276245232948367 -0.0071789415164829305 0.002188035979172326 -0.006044907032793927 -0.001926481773020664 -0.0076084920014383405 0.0019257437872650985 0.0003333615349584986 0.006058799825540049 0.004879286952432193 0.005044303981371242 -0.00577237216369896 0.006869087945051765 -0.003151192779536791 0.003234081542413517 -0.0057230691406881355 0.006839377504603678 0.004767779539901407 -0.0022404887303691563 0.004542887701722095 -0.004063280768740533 -0.003201027640877346 -0.0069235129564475875 0.0068818751600564585 0.005000888953397757 0.004033223009216401 -0.002213124476989542 -0.0027430186433339697 -0.0016937078386204676 -0.0023190163949423845 -0.004705446984233471 -0.007426362879004885 -0.005357230595482892 -0.006157672662789305 -0.0019476933169189714 -0.0027465250203685195 -0.006368306126381772 0.00012332108328692225 0.000926568425647204 0.004436134491896909 0.0033903626758480057 -8.54280653486797e-05 -0.006110899072037445 -0.0012190049350409096 -0.006935657205955153 -0.001846473866518592 -0.005080585403355803 -0.00636453568447936 -0.0006598391519095541 0.0021475689327885047 -0.006760716309908903 0.001958663712065546 -0.006558579976583485 -0.004574360456755956 0.002099061376122227 0.0006156624776830422 -0.0005543697601046428 0.0025300500550279087 0.0074669766234519135 0.005167294199678143 -0.00604918557770439 -0.00022183407167159462 -0.003722006727162252 -0.00628776248476985 -0.004808553701110362 0.007366103258209889 0.0026797625839245338 0.005485404778865586 0.006502151677874149 0.0059031384505341105 0.005627786875875641 0.0033435194988457907 -0.0030342024393709534 0.0004008508122419515 0.002908025833852058 -0.005075068164360645 -0.003704407506936016 -0.0013917403915386633 -6.48257270041502e-05 0.0031905295629724908 -0.0056596327557004245 -0.006069606117909331 -0.007260614771895799 -0.001035713570719004 -0.007169963647258515 0.0047662739424604176 0.0019376272903859901 0.004388013347350205 -0.006959299993294241 0.0044206756892348 0.00660593777463866 0.004344179822736416 0.0014738243036738646 0.006299169164002305 0.005756084023612786 0.0031858544588828116 0.00025461956576302246 0.004016931122199752 -0.006018763513233716 -0.006257513278385535 0.006427403677107698 0.002509337598407823 -0.0065230718610295915 0.0010477534347444837 0.0016399096576211415 0.007051694262271797 0.0043342590115332934 -0.005446285067674919 -0.00497999161916478 -0.0025821231785153153 0.005398232099438766 0.0033873102291199805 0.0075522648913670335 0.005432463850700908 -0.00028395186584991884 0.0035513405074902795 -0.00677490914137191 -0.005769179827476494 -0.0060794261793009645 -0.00399406504372133 0.002710669164843596 0.0016681058261567177 0.0033302255026907957 -0.006838813104750227 -0.005230408806748417 -0.0017842095915533676 -0.007338812615643453 -0.007013495942338588 0.0013428562235284507 0.0028865431236690547 0.006403141560100811 0.0007710610530749028 -0.006074471579413032 -0.006168668612068998 0.004931842171101654 0.0038566461720877365 0.0022041549097099283 -0.0013027885202726444 -0.007563735677425762 0.007273432486717885 -0.006731279432710471 -0.00719186770849988 -0.006440875092069371 -0.007195706767689515 0.0013947139617803892 0.004699127864582907 -0.0025093123788611153 0.005625648100548157 0.002441901461713418 -0.0062575500959266474 0.003826203733191488 0.003158793130722588 -0.004057408494196667 -0.006700347590477761 -0.0003932468960610095 -0.0017291031334340458 0.0031867794456479537 -0.003930519223888303 0.004197822644680308 -0.0023033257861517662 -0.0040477770073950505 -0.004059609973010688 -0.0009042668239149129 -0.0028886014801431294 0.005327451186236496 -0.0038928647578237298 -0.00010015026462139485 -0.005538033011863728 -0.005238410416764014 0.003281911538739743 0.00455095291346664 0.007303787190904293 0.0068137731564710145 -0.004678209571888937 -0.0028175867866710724 -0.006822453252400421 0.0009420328063033741 0.007181970882307771 -0.0010546047709224177 -0.005839858575023352 -0.003762636119829568 0.005796656602454158 -0.005187392373774206 0.0022335065600094938 0.0022342320071101285 0.006939521497727245 -0.0074964368022530595 0.0037345573963214855 0.003136255443723643 0.005554145980547403 -0.002506018357469177 0.004956713963244716 -0.0017170711221991544 -0.004627529311467316 -0.0017247978610528646 -0.006044521401971384 -0.007191476339507745 0.002954968815066622 0.001082000115203258 0.0016295427314381853 0.007586426190053199 -0.007025847313326199 -0.006107638799291278 0.007454916288918465 -0.004282170785240559 0.0035738170627735016 -0.0001715242174813394 -0.005074899464660737 -0.007121760081526561 0.0011225442201499302 -0.007235419094493094 0.00707064926717814 -0.006031842788342436 0.007103134462143081 -0.0062507762168062045 -0.002762843106340024 0.002580480214858102 0.007120579775743753 0.006696793067062878 0.006578527371596797 3.111195859940482e-05 -0.0009770733518074818 -0.004223203667038453 0.00370100464718232 -0.006158587783159074 0.004314191783599179 0.0074108640784875425 0.0060721342795543 -0.0013928521956183102 0.0040920854893104035 -0.006158605774461031 0.00488740407379649 -0.0033305751079288487 0.0043009159141712775 0.0066728439852607084 0.000516226098397355 0.00355685456598458 -0.006889172166582357 5.525137487022327e-05 -0.007026699741179388 0.00431061124666213 0.0037245683741124885 -0.003697248306880521 0.0019173282990353091 0.004785868248390361 0.007018136374253559 -0.0014285705696227672 -0.0007892743216402074 -0.0015669912485512774 -0.005632409098362208 -0.0004832865304284361 0.0014680645251811636 0.003658671813873508 0.006199103233965393 0.0014499026662068524 0.0052494050614108724 -0.0035827932496559516 -0.0010521357432182047 -0.007150985077039165 -0.0013993860219440276 -0.0013261936948604203 -0.0044628890831021305 0.0007777478972740359 0.007264535502155218 0.00021713628635933912 0.003803211638149677 -0.006450963116045476 0.0030119220145833183 0.007597862668396668 -0.002143406542597513 0.001893936267056468 -0.0075021984874852786 -0.006542583569123282 0.0038403866080270743 0.004158579791562433 -0.002110076862593763 0.0023424136099889944 -0.003883113505730195 -0.0008131421342725883 0.00662491387150349 0.007176568220459189 0.007097186377840778 -0.0004179800670788721 -0.0051519607409460525 0.004812663054126548 -0.0019211502498779434 -0.0006884083198187932 -0.005565392233736961 -0.005823327897280822 0.00722218227667516 -0.00468993430580649 0.006040587827957862 -0.002275468075939277 -0.004850152346314894 -0.0012358331336551928 0.007342483724212772 -0.004700836536025857 0.0070423105132413 0.00020537493718547452 -0.004830854527253737 0.005505277776519791 0.0008233384454425133 0.0026427013264253697 -0.006772959188945322 0.004433718157215168 0.0029775875978281115 0.0012722946532747349 -0.005415397345820142 -0.003245130279764137 -0.0037268454048238852 -0.0060318226988846525 0.006096873599967194 -0.006729807443986542 0.003608936735616129 -0.002245354287927102 -0.006117403671483127 0.005538777215250119 0.005143677629686087 0.006134939316430506 -0.007041543635192363 0.006790215593525411 0.0012688060167446444 -0.004623669321160707 -0.004466331599325027 -0.007057399910409326 -0.005424292443966972 0.006070265167015836 0.0007226692522938158 -0.0020949664736293998 -0.007017203402738183 -0.0065240737546101 -0.0011543146592105202 0.007163046627236111 -0.0032858710878047453 0.00574841144490384 0.0044716037060748125 0.007454871513149981 0.0017631722196809075 0.001630322746086432 -0.00591706993704227 0.004830547487461404 -0.0075716065282482505 0.007551002919587951 -0.0008118388536300652 -0.0022575140560937047 9.976439988754539e-05 -0.0029359278092138063 -0.007552061418299734 -0.00037250634030281326 0.003910221523867916 0.0016600516469375342 0.005527930004848377 0.0063424539405464685 0.004866451999769194 -0.004232395642098619 -0.00011669070253731498 0.0030609484733564157 0.0002873269168736953 0.0029074238615009024 0.007012194020246914 -0.0024144204996848803 0.0009205655286556462 -0.0034488807744683385 -0.0005815051453320569 0.006898114805895986 -0.007212215000085321 -0.006440349775721551 0.006656158699762244 0.005873586263483414 -0.006786273841873372 -0.004183788448931302 0.005579821533095066 -0.0046316991492436465 0.0037192843490318904 -0.0057556337481280044 -0.0013827693538082215 -0.005155443429136274 -0.0029642532706899366 -0.004753194381541186 0.002088402575057827 0.006053366295285305 -0.0018009277456134296 0.00029347129351509717 -0.001381517634113295 0.0068790206249337215 -0.00043605636213551736 0.006709149540298014 -0.00012429554998636555 0.003583291220098745 -0.005068354038827858 0.005443684804875784 0.005086714734836084 -0.00635770591281014 -0.007174198851008177 0.004107961093018052 0.000268863142628737 -0.007054006489922955 -0.0027325208567715027 0.004849590634430311 0.0003944090408718253 -0.006221107449783389 0.0009379485041973841 -0.007190593934219998 -0.0035729864411603606 -0.0012065177287470521 -0.00743398392029497 0.0006390254985600975 0.001710934083423585 -0.007486932946752662 -0.0010367940079309423 0.001203797469170889 0.0003757133104365539 -0.007316188095079513 0.005917137470922536 -0.0029110841527616757 0.004951022995305764 -0.0019167290625831412 -0.0055967403513269825 0.0074493116803947546 0.004105513995735875 
0.002289686324394451 -0.005020864499432871 -0.0016095842651480108 0.006354680435427186 0.003730571630471221 -0.004225867972751942 0.0025652510155243138 -0.006802624644175106 0.005979619746007212 -0.00701503341577815 -0.001924637367423722 -0.006581240151608644 0.005491444857513194 -0.002743984156749663 -0.007099391891096234 -0.0026610589462076413 0.0017035154710080905 0.0008877492048606409 -0.0011202878066862907 -0.0071557233544469545 0.006208115353655623 0.0063844423435072606 0.007558534821206045 0.006749762510892329 -0.007057592253921239 -0.006527177176909295 -0.004109316670447261 -0.0069618213378694884 -0.005669769369144888 0.0019848478878495136 0.005195915337750534 -0.0008701185904398437 3.096752547783011e-05 -0.005533710500060889 0.005339974989995231 -0.005275255183680865 0.005296709059649897 -0.003465332897206497 -0.006325808565369274 -0.003845285854575418 0.004620161899835119 0.006700027874547563 0.0004974949823554752 -0.003975184942267313 0.0017215111707732439 -0.0030187229666589657 -0.0021630534719597003 -0.0005637756816451137 -0.0031619052266590114 0.004266305818831397 0.006973178677285897 0.000785614543015762 0.004779475061027413 0.0019763495697010976 0.004145216050908201 0.0005236106018665079 0.00605203091733239 -0.0066491728158033685 -0.0033559294146162356 -0.007575983309117276 0.002683469318155716 0.004956070933399867 -0.005937742405827457 -0.007369012415150754 0.005447945093860754 -0.0014827109477650795 -0.0008457494300656675 -0.00216057023425651 -0.00661668534831449 0.005043772000658217 0.00492118535041363 -0.004946481462562623 -0.0022465998026571917 0.0004940910104006706 0.00036566224493044837 0.00024201332760967717 -0.005018665776223447 -0.004727699063282171 -0.006582914757183229 0.006523968052160708 0.00393234911636255 -0.0006750338701974429 -0.00520257616812626 -0.0019605514864244086 0.0042159539850981755 -0.007208756365148623 0.0023991621216173913 -0.004576154980723696 0.005888621297439293 0.0034218631800438334 0.00409875826202906 0.005997732145399929 0.005792366690748602 0.005671389421626205 -0.0060269879950352835 0.0017532868718257335 0.007563786291105505 0.007000841220095036 0.006583346656847395 0.00018063647180635166 0.007344029488858845 0.0074204624240371145 -9.642268302317897e-05 0.0020339166315354643 -0.005759535766121819 -0.0038119085431026433 -0.006628633753389291 -0.007470661676562906 -0.00732036373253913 -0.0036698687471010297 -0.005720112169646095 0.0023892506203124415 -0.00709766894890013 -0.005583973392863289 0.0005396226682012809 0.0021760133952664186 -0.002101939810354387 -0.0054811353004010814 0.00011745790378833643 0.006494211060080623 -0.005868619701930544 -0.005856420576656425 0.005388634530680006 0.0037370069861703036 -0.0049408100028630235 0.000690087703094253 -0.004712112134104433 0.004997174380634919 -0.00011188507228182566 0.004665339286613343 -0.000568904909173871 -0.004191629364075447 0.006992922948463143 0.0013964115542988082 -0.0001942150452779035 0.004372088170985431 0.0034532959053321433 0.0037950527559645376 -0.005885300073058001 -0.007562372067945875 0.001384170393774492 0.0069551796776515466 -0.004372193118690375 0.00017643964735347957 -0.0034120574881361483 -0.00011391734313462138 0.00682367737474031 0.007587789672666634 -0.003651027526142172 0.003052859395310303 -0.0022099125213546796 -0.007140992975439174 0.0010306802819282782 -0.002037062216720139 0.00031639181887084474 -0.0010777436523744964 -0.002409248904480267 -0.0006348570153143848 -0.002406034195279155 -0.007305887046080909 0.006665714946838568 0.004719868784409394 -0.004479335085975596 0.00725973930216292 -0.006075035160847647 -0.003968465065441209 0.0032550553656253427 0.0036196558279009824 0.004754980341689834 0.002234194970471336 -0.005702531248650412 0.0061563682954743505 0.0028845976739042506 -0.003305078233885087 0.0022813747215199684 0.003825111988313468 0.0065374883126036775 -0.005569833798434676 -0.005465718207941831 0.005623090418535565 0.0059503111805333546 0.007436456411275045 -0.006343682870781027 -0.006948796951948821 -0.004907799535647856 0.006529662457677459 -0.00542166590752063 -0.002962393089695186 -0.0027752082076214 -0.006315073305510828 -7.423640628234072e-05 -0.0074327522422854 0.0032007976959564483 0.0022924261065564466 0.006588694365149627 -0.0018840966446615976 0.0062807871521171 -0.005039753429767036 -0.003842861027149989 -0.007523086693109962 0.0018359378167999687 -0.0008604062606658529 0.0016302932028733471 0.001463862770498323 -0.0015032860856453673 0.00715265547276839 0.0027832122671204683 -0.0049949269136815985 0.004097061127172114 0.001879109273459335 0.004739219542700112 -0.0024414967272360887 0.004483780158424961 0.0006304588194946112 -0.0062799338657477674 0.004543876098363527 0.0036442193790765156 -0.0002721189623567614 0.0006107401779943975 -0.004852059529994922 -0.006200488044182917 0.003368323757753253 0.0074325530531391725 -0.004020170326515683 0.005377969624888618 -0.006456484700799435 0.005820044076149516 0.0036121578866112882 0.00595032005561928 0.004074445986763151 -0.0010640304704164578 -0.006245784351111896 -0.005370613637495214 -0.006851778289055586 0.00280817235568584 -0.007499344136591306 0.0002947899334671835 0.0024824538195474754 3.127553097216975e-05 0.00504261978477595 -0.0014298552160854111 -0.003870899311137274 -0.0008883320455524122 0.001615388004150482 -0.005517760763681806 -0.0009983770111502172 0.005349025396048543 -0.006423031031087026 0.0016010036716389926 0.0062201437834796805 0.007611625086158932 0.004348058969480969 0.007181878896447899 -0.0013057427809365562 0.0017583285539038058 0.003288663599099047 0.006085060310169321 0.005807078960811154 0.005314631046796973 -0.006989846680786543 -0.004196205845844013 -0.005167114006241931 0.003986412724089907 0.0003284078249802226 0.0009698249206513021 -0.0071142291283883006 0.002803389598171163 0.004049418628631692 -0.004665768679357098 0.0011936714882011213 0.00506927999667585 -0.002799325154164603 -0.0068094271735858625 0.003882973899851065 -0.0024380858374274984 -0.005606257215657232 0.001254482168133102 0.0010253645601127482 0.003468109066493414 0.003975016171908753 -0.006618420086700002 0.007596418765688486 0.007388911400221031 0.004731511186920503 0.0008565293526426653 -0.0069343191888706305 -0.001353065343815053 0.00044837392477739394 -0.00603311589634798 0.004335597795396949 0.006857180062989864 -0.004526462572218363 0.007427771306082952 0.006989788932164306 -0.005783844528152424 -0.0024631194818118133 -0.00592192070130086 0.006288294114756398 -0.0015739543805359997 0.0025216486005731633 -0.0031762640931657093 -0.0037093954259823053 -0.003105676160998989 -0.0027285062850216056 -0.006195958185907783 0.0001224627222814844 -0.0048496433687100216 -0.004784890412533678 0.007273981678928518 -0.006577598748259297 -0.0053327098190087815 -0.006568872939091454 -0.0032015737711382393 -0.003853718748751985 -0.0022441092784821716 
0.002221431910320039 -0.006847272879365376 -0.0016754644974144334 -0.0047156449946813665 0.0010194542884547323 -0.0012108418944509177 -0.0009048887899123597 -0.004275531183190014 0.007237591612819226 -0.004007579247749967 -0.00461755085620399 -0.0005874887626923326 0.006832933450493462 -0.00442070727378612 0.007265969578461341 -0.003917091327154605 -0.00527330578023112 -0.004280436240083032 -0.0006349740400172707 -0.002090991486472472 -0.00011350712949020188 0.0028907280976871712 -0.00022739825314003448 0.0007176968865948063 -0.005180569755191322 -0.0054706226849804765 0.005055391103146322 -0.006902115046594118 -0.007182577664028225 0.005592588582185492 -0.0007175722832564262 -0.0020531298876615743 0.004939802417451956 -0.007498337566109189 -0.006949778671216109 0.005926011689388744 -0.005695249522181697 0.004568099444672568 -0.0011936593030047544 0.0012591008196848148 -0.006657957926298356 0.004192125232375501 -0.006412410123549803 0.007107638477420832 -0.006304795012043165 -0.00324236071473924 -0.0035482117803478687 0.0057848229894851165 -0.0027514994535055826 0.0030504527904942893 -0.00445641552104869 -0.007562607051886605 -0.007169501805997112 -0.007290466213009279 -0.005392445358164736 0.0003303992581668589 -0.005172273332850419 0.0060809812821997775 -0.004771520874968039 0.0012396887295655075 -9.237784281948513e-05 0.006020166675866835 -0.0046731624325704515 0.00721542154592428 0.005442201677489051 0.0008791132903356888 -0.004405672114695597 0.001662349196867498 0.005454210451546654 -0.00678421116970027 0.004872587827917762 -0.00690812329802069 0.006424737886894864 -0.006694204125987008 -0.00026542005896509695 0.0072702810915152224 -0.005899429631771857 0.004825930910929615 0.0010004940110356628 0.0029491625049269067 0.005191293422416431 0.0062300670237882974 -0.0032569668066689144 -0.0037445167014278865 0.0017212790765955028 -0.007139269656093806 0.0003441354592527879 -0.004239968120717186 -0.0019264558248546929 0.0006829775449119733 0.0018287531556586834 0.004317402625051281 -0.002277307094598535 0.006685721604177815 0.005301140454338381 -0.006084768333584209 0.0073514543093592686 0.005013956552749514 0.005434848579042238 -0.0014668594908631913 -0.0029565151951713585 -0.0022097009184033315 0.0029752033963465953 -0.0042594104924810776 0.005513273151320131 -0.0038838716890131496 -0.0027532663135217093 -0.004706863699065954 0.005543647117357183 0.0019366125487231957 0.001288237290364721 0.007047901979479937 0.0024914878496009965 0.005546997627395099 0.007338839686544327 -0.007417550461394735 0.0014420026099901159 -0.004133983264763782 0.0063694449555683165 -0.00027002711084922655 -0.004173516336810623 -0.0052288146184513665 -0.00046386928577178563 0.0028087109587978175 0.00699792998359702 -0.004996707913390506 -0.004283333727172882 0.007305851542343044 0.007477808078256256 0.0017524744188339026 0.006366476432567693 -0.006932032666025845 -0.0041057537975957795 0.003098653560033411 0.00639136013185814 -0.0035271705759822455 -0.007270073224072775 0.005151369789720857 -0.005437890800436893 -0.006080378623210489 0.0005302351728462463 -0.005590236021104758 0.006873826025687377 0.006869860221863948 -0.004469836678838452 -0.006426421091127289 -0.004353981308849715 -0.0012331559736214652 -0.0038019356979013086 -0.006306662921508167 0.0025342166839487606 0.002202525587880386 0.00680432624010154 0.007205895925124647 -0.002211375765471454 -0.005825201502571617 -0.003900407627209356 0.002237219427025746 0.00445413952396635 -0.0067976108423397 
